digraph Tree {
node [shape=box, style="rounded", color="black", fontname=helvetica] ;
edge [fontname=helvetica] ;
0 [label="BOD <= 475.0\nmse = 0.0\nsamples = 173\nvalue = 0.5"] ;
1 [label="BOD <= 93.0\nmse = 0.0\nsamples = 172\nvalue = 0.5"] ;
0 -> 1 [labeldistance=2.5, labelangle=45, headlabel="True"] ;
2 [label="BOD <= 64.0\nmse = 0.0\nsamples = 2\nvalue = 0.9"] ;
1 -> 2 ;
3 [label="mse = 0.0\nsamples = 1\nvalue = 1.0"] ;
2 -> 3 ;
4 [label="mse = 0.0\nsamples = 1\nvalue = 0.8"] ;
2 -> 4 ;
5 [label="NH3-N <= 36.0\nmse = 0.0\nsamples = 170\nvalue = 0.5"] ;
1 -> 5 ;
6 [label="mse = 0.0\nsamples = 166\nvalue = 0.5"] ;
5 -> 6 ;
7 [label="mse = 0.1\nsamples = 4\nvalue = 0.7"] ;
5 -> 7 ;
8 [label="mse = -0.0\nsamples = 1\nvalue = 1.3"] ;
0 -> 8 [labeldistance=2.5, labelangle=-45, headlabel="False"] ;
}